digraph Tree {
node [shape=box] ;
0 [label="time <= 67.5\nentropy = 0.963\nsamples = 240\nvalue = [147, 93]"] ;
1 [label="platelets <= 214.5\nentropy = 0.592\nsamples = 70\nvalue = [10, 60]"] ;
0 -> 1 [labeldistance=2.5, labelangle=45, headlabel="True"] ;
2 [label="entropy = 0.0\nsamples = 20\nvalue = [0, 20]"] ;
1 -> 2 ;
3 [label="creatinine_phosphokinase <= 109.5\nentropy = 0.722\nsamples = 50\nvalue = [10, 40]"] ;
1 -> 3 ;
4 [label="entropy = 1.0\nsamples = 10\nvalue = [5, 5]"] ;
3 -> 4 ;
5 [label="time <= 28.5\nentropy = 0.544\nsamples = 40\nvalue = [5, 35]"] ;
3 -> 5 ;
6 [label="entropy = 0.0\nsamples = 16\nvalue = [0, 16]"] ;
5 -> 6 ;
7 [label="platelets <= 307.5\nentropy = 0.738\nsamples = 24\nvalue = [5, 19]"] ;
5 -> 7 ;
8 [label="serum_creatinine <= 1.25\nentropy = 0.94\nsamples = 14\nvalue = [5, 9]"] ;
7 -> 8 ;
9 [label="entropy = 0.985\nsamples = 7\nvalue = [4, 3]"] ;
8 -> 9 ;
10 [label="entropy = 0.592\nsamples = 7\nvalue = [1, 6]"] ;
8 -> 10 ;
11 [label="entropy = 0.0\nsamples = 10\nvalue = [0, 10]"] ;
7 -> 11 ;
12 [label="serum_creatinine <= 1.55\nentropy = 0.71\nsamples = 170\nvalue = [137, 33]"] ;
0 -> 12 [labeldistance=2.5, labelangle=-45, headlabel="False"] ;
13 [label="time <= 173.0\nentropy = 0.494\nsamples = 139\nvalue = [124, 15]"] ;
12 -> 13 ;
14 [label="time <= 149.0\nentropy = 0.617\nsamples = 98\nvalue = [83, 15]"] ;
13 -> 14 ;
15 [label="age <= 77.5\nentropy = 0.496\nsamples = 92\nvalue = [82, 10]"] ;
14 -> 15 ;
16 [label="ejection_fraction <= 27.5\nentropy = 0.368\nsamples = 85\nvalue = [79, 6]"] ;
15 -> 16 ;
17 [label="entropy = 0.918\nsamples = 9\nvalue = [6, 3]"] ;
16 -> 17 ;
18 [label="creatinine_phosphokinase <= 1861.0\nentropy = 0.24\nsamples = 76\nvalue = [73, 3]"] ;
16 -> 18 ;
19 [label="platelets <= 349.5\nentropy = 0.108\nsamples = 70\nvalue = [69, 1]"] ;
18 -> 19 ;
20 [label="entropy = 0.0\nsamples = 64\nvalue = [64, 0]"] ;
19 -> 20 ;
21 [label="entropy = 0.65\nsamples = 6\nvalue = [5, 1]"] ;
19 -> 21 ;
22 [label="entropy = 0.918\nsamples = 6\nvalue = [4, 2]"] ;
18 -> 22 ;
23 [label="entropy = 0.985\nsamples = 7\nvalue = [3, 4]"] ;
15 -> 23 ;
24 [label="entropy = 0.65\nsamples = 6\nvalue = [1, 5]"] ;
14 -> 24 ;
25 [label="entropy = 0.0\nsamples = 41\nvalue = [41, 0]"] ;
13 -> 25 ;
26 [label="creatinine_phosphokinase <= 72.5\nentropy = 0.981\nsamples = 31\nvalue = [13, 18]"] ;
12 -> 26 ;
27 [label="entropy = 0.65\nsamples = 6\nvalue = [5, 1]"] ;
26 -> 27 ;
28 [label="high_blood_pressure <= 0.5\nentropy = 0.904\nsamples = 25\nvalue = [8, 17]"] ;
26 -> 28 ;
29 [label="platelets <= 226.0\nentropy = 0.998\nsamples = 17\nvalue = [8, 9]"] ;
28 -> 29 ;
30 [label="entropy = 0.592\nsamples = 7\nvalue = [1, 6]"] ;
29 -> 30 ;
31 [label="entropy = 0.881\nsamples = 10\nvalue = [7, 3]"] ;
29 -> 31 ;
32 [label="entropy = 0.0\nsamples = 8\nvalue = [0, 8]"] ;
28 -> 32 ;
}