digraph Tree {
node [shape=box] ;
0 [label="X[11] <= 67.5\ngini = 0.405\nsamples = 209\nvalue = [150, 59]"] ;
1 [label="X[4] <= 72.5\ngini = 0.249\nsamples = 48\nvalue = [7, 41]"] ;
0 -> 1 [labeldistance=2.5, labelangle=45, headlabel="True"] ;
2 [label="X[2] <= 109.5\ngini = 0.223\nsamples = 47\nvalue = [6, 41]"] ;
1 -> 2 ;
3 [label="X[11] <= 24.0\ngini = 0.444\nsamples = 12\nvalue = [4, 8]"] ;
2 -> 3 ;
4 [label="gini = 0.0\nsamples = 3\nvalue = [3, 0]"] ;
3 -> 4 ;
5 [label="X[2] <= 101.5\ngini = 0.198\nsamples = 9\nvalue = [1, 8]"] ;
3 -> 5 ;
6 [label="gini = 0.0\nsamples = 8\nvalue = [0, 8]"] ;
5 -> 6 ;
7 [label="gini = 0.0\nsamples = 1\nvalue = [1, 0]"] ;
5 -> 7 ;
8 [label="X[2] <= 1818.5\ngini = 0.108\nsamples = 35\nvalue = [2, 33]"] ;
2 -> 8 ;
9 [label="X[4] <= 47.5\ngini = 0.061\nsamples = 32\nvalue = [1, 31]"] ;
8 -> 9 ;
10 [label="gini = 0.0\nsamples = 28\nvalue = [0, 28]"] ;
9 -> 10 ;
11 [label="X[2] <= 142.0\ngini = 0.375\nsamples = 4\nvalue = [1, 3]"] ;
9 -> 11 ;
12 [label="gini = 0.0\nsamples = 1\nvalue = [1, 0]"] ;
11 -> 12 ;
13 [label="gini = 0.0\nsamples = 3\nvalue = [0, 3]"] ;
11 -> 13 ;
14 [label="X[6] <= 284.18\ngini = 0.444\nsamples = 3\nvalue = [1, 2]"] ;
8 -> 14 ;
15 [label="gini = 0.0\nsamples = 2\nvalue = [0, 2]"] ;
14 -> 15 ;
16 [label="gini = 0.0\nsamples = 1\nvalue = [1, 0]"] ;
14 -> 16 ;
17 [label="gini = 0.0\nsamples = 1\nvalue = [1, 0]"] ;
1 -> 17 ;
18 [label="X[7] <= 1.815\ngini = 0.199\nsamples = 161\nvalue = [143, 18]"] ;
0 -> 18 [labeldistance=2.5, labelangle=-45, headlabel="False"] ;
19 [label="X[6] <= 90.0\ngini = 0.116\nsamples = 146\nvalue = [137, 9]"] ;
18 -> 19 ;
20 [label="X[4] <= 40.0\ngini = 0.444\nsamples = 3\nvalue = [1, 2]"] ;
19 -> 20 ;
21 [label="gini = 0.0\nsamples = 2\nvalue = [0, 2]"] ;
20 -> 21 ;
22 [label="gini = 0.0\nsamples = 1\nvalue = [1, 0]"] ;
20 -> 22 ;
23 [label="X[6] <= 582.0\ngini = 0.093\nsamples = 143\nvalue = [136, 7]"] ;
19 -> 23 ;
24 [label="X[4] <= 27.5\ngini = 0.081\nsamples = 142\nvalue = [136, 6]"] ;
23 -> 24 ;
25 [label="X[11] <= 210.5\ngini = 0.375\nsamples = 16\nvalue = [12, 4]"] ;
24 -> 25 ;
26 [label="X[11] <= 76.0\ngini = 0.26\nsamples = 13\nvalue = [11, 2]"] ;
25 -> 26 ;
27 [label="gini = 0.0\nsamples = 1\nvalue = [0, 1]"] ;
26 -> 27 ;
28 [label="X[10] <= 0.5\ngini = 0.153\nsamples = 12\nvalue = [11, 1]"] ;
26 -> 28 ;
29 [label="gini = 0.0\nsamples = 9\nvalue = [9, 0]"] ;
28 -> 29 ;
30 [label="X[3] <= 0.5\ngini = 0.444\nsamples = 3\nvalue = [2, 1]"] ;
28 -> 30 ;
31 [label="gini = 0.0\nsamples = 2\nvalue = [2, 0]"] ;
30 -> 31 ;
32 [label="gini = 0.0\nsamples = 1\nvalue = [0, 1]"] ;
30 -> 32 ;
33 [label="X[7] <= 0.95\ngini = 0.444\nsamples = 3\nvalue = [1, 2]"] ;
25 -> 33 ;
34 [label="gini = 0.0\nsamples = 1\nvalue = [1, 0]"] ;
33 -> 34 ;
35 [label="gini = 0.0\nsamples = 2\nvalue = [0, 2]"] ;
33 -> 35 ;
36 [label="X[0] <= 79.5\ngini = 0.031\nsamples = 126\nvalue = [124, 2]"] ;
24 -> 36 ;
37 [label="gini = 0.0\nsamples = 121\nvalue = [121, 0]"] ;
36 -> 37 ;
38 [label="X[7] <= 1.19\ngini = 0.48\nsamples = 5\nvalue = [3, 2]"] ;
36 -> 38 ;
39 [label="gini = 0.0\nsamples = 3\nvalue = [3, 0]"] ;
38 -> 39 ;
40 [label="gini = 0.0\nsamples = 2\nvalue = [0, 2]"] ;
38 -> 40 ;
41 [label="gini = 0.0\nsamples = 1\nvalue = [0, 1]"] ;
23 -> 41 ;
42 [label="X[8] <= 132.5\ngini = 0.48\nsamples = 15\nvalue = [6, 9]"] ;
18 -> 42 ;
43 [label="gini = 0.0\nsamples = 3\nvalue = [3, 0]"] ;
42 -> 43 ;
44 [label="X[6] <= 306.68\ngini = 0.375\nsamples = 12\nvalue = [3, 9]"] ;
42 -> 44 ;
45 [label="X[2] <= 62.5\ngini = 0.198\nsamples = 9\nvalue = [1, 8]"] ;
44 -> 45 ;
46 [label="gini = 0.0\nsamples = 1\nvalue = [1, 0]"] ;
45 -> 46 ;
47 [label="gini = 0.0\nsamples = 8\nvalue = [0, 8]"] ;
45 -> 47 ;
48 [label="X[4] <= 30.0\ngini = 0.444\nsamples = 3\nvalue = [2, 1]"] ;
44 -> 48 ;
49 [label="gini = 0.0\nsamples = 1\nvalue = [0, 1]"] ;
48 -> 49 ;
50 [label="gini = 0.0\nsamples = 2\nvalue = [2, 0]"] ;
48 -> 50 ;
}