digraph Tree {
node [shape=box] ;
0 [label="time <= 67.5\nentropy = 0.859\nsamples = 209\nvalue = [150, 59]"] ;
1 [label="platelets <= 217.0\nentropy = 0.599\nsamples = 48\nvalue = [7, 41]"] ;
0 -> 1 [labeldistance=2.5, labelangle=45, headlabel="True"] ;
2 [label="entropy = 0.0\nsamples = 13\nvalue = [0, 13]"] ;
1 -> 2 ;
3 [label="creatinine_phosphokinase <= 127.5\nentropy = 0.722\nsamples = 35\nvalue = [7, 28]"] ;
1 -> 3 ;
4 [label="entropy = 0.961\nsamples = 13\nvalue = [5, 8]"] ;
3 -> 4 ;
5 [label="creatinine_phosphokinase <= 476.5\nentropy = 0.439\nsamples = 22\nvalue = [2, 20]"] ;
3 -> 5 ;
6 [label="entropy = 0.0\nsamples = 12\nvalue = [0, 12]"] ;
5 -> 6 ;
7 [label="entropy = 0.722\nsamples = 10\nvalue = [2, 8]"] ;
5 -> 7 ;
8 [label="serum_creatinine <= 1.65\nentropy = 0.505\nsamples = 161\nvalue = [143, 18]"] ;
0 -> 8 [labeldistance=2.5, labelangle=-45, headlabel="False"] ;
9 [label="ejection_fraction <= 27.5\nentropy = 0.289\nsamples = 138\nvalue = [131, 7]"] ;
8 -> 9 ;
10 [label="entropy = 0.811\nsamples = 16\nvalue = [12, 4]"] ;
9 -> 10 ;
11 [label="age <= 74.0\nentropy = 0.166\nsamples = 122\nvalue = [119, 3]"] ;
9 -> 11 ;
12 [label="creatinine_phosphokinase <= 1833.0\nentropy = 0.074\nsamples = 112\nvalue = [111, 1]"] ;
11 -> 12 ;
13 [label="entropy = 0.0\nsamples = 102\nvalue = [102, 0]"] ;
12 -> 13 ;
14 [label="entropy = 0.469\nsamples = 10\nvalue = [9, 1]"] ;
12 -> 14 ;
15 [label="entropy = 0.722\nsamples = 10\nvalue = [8, 2]"] ;
11 -> 15 ;
16 [label="creatinine_phosphokinase <= 327.0\nentropy = 0.999\nsamples = 23\nvalue = [12, 11]"] ;
8 -> 16 ;
17 [label="entropy = 0.845\nsamples = 11\nvalue = [8, 3]"] ;
16 -> 17 ;
18 [label="entropy = 0.918\nsamples = 12\nvalue = [4, 8]"] ;
16 -> 18 ;
}